<?xml version="1.0"?>
<opencv_storage>
<!-- Created using Computer Vision System Toolbox(tm) for MATLAB(R) -->
<!-- Version 9.3.0.713579 (R2017b) -->
<!-- Compatible with OpenCV 3.1 -->
<cascade>
  <stageType>BOOST</stageType>
  <featureType>HOG</featureType>
  <height>32</height>
  <width>33</width>
  <stageParams>
    <boostType>GAB</boostType>
    <minHitRate>9.9500000476837158e-01</minHitRate>
    <maxFalseAlarm>1.0000000149011612e-01</maxFalseAlarm>
    <weightTrimRate>9.4999999999999996e-01</weightTrimRate>
    <maxDepth>1</maxDepth>
    <maxWeakCount>100</maxWeakCount></stageParams>
  <featureParams>
    <maxCatCount>0</maxCatCount>
    <featSize>36</featSize></featureParams>
  <stageNum>10</stageNum>
  <stages>
    <!-- stage 0 -->
    <_>
      <maxWeakCount>4</maxWeakCount>
      <stageThreshold>-3.9258459210395813e-01</stageThreshold>
      <weakClassifiers>
        <_>
          <internalNodes>
            0 -1 47 1.0434150695800781e-02</internalNodes>
          <leafValues>
            8.3999997377395630e-01 -8.8679248094558716e-01</leafValues></_>
        <_>
          <internalNodes>
            0 -1 50 3.0305933207273483e-02</internalNodes>
          <leafValues>
            6.8159371614456177e-01 -9.8057919740676880e-01</leafValues></_>
        <_>
          <internalNodes>
            0 -1 6 1.8467523157596588e-02</internalNodes>
          <leafValues>
            8.4028065204620361e-01 -8.4621894359588623e-01</leafValues></_>
        <_>
          <internalNodes>
            0 -1 48 3.6918558180332184e-02</internalNodes>
          <leafValues>
            6.5883308649063110e-01 -8.2875907421112061e-01</leafValues></_></weakClassifiers></_>
    <!-- stage 1 -->
    <_>
      <maxWeakCount>2</maxWeakCount>
      <stageThreshold>4.4260108843445778e-03</stageThreshold>
      <weakClassifiers>
        <_>
          <internalNodes>
            0 -1 10 7.7034523710608482e-03</internalNodes>
          <leafValues>
            9.1304349899291992e-01 -8.5454547405242920e-01</leafValues></_>
        <_>
          <internalNodes>
            0 -1 1 8.9040733873844147e-03</internalNodes>
          <leafValues>
            8.5897147655487061e-01 -8.8449072837829590e-01</leafValues></_></weakClassifiers></_>
    <!-- stage 2 -->
    <_>
      <maxWeakCount>2</maxWeakCount>
      <stageThreshold>2.5838504079729319e-03</stageThreshold>
      <weakClassifiers>
        <_>
          <internalNodes>
            0 -1 24 1.0597117245197296e-02</internalNodes>
          <leafValues>
            9.1836732625961304e-01 -9.0654206275939941e-01</leafValues></_>
        <_>
          <internalNodes>
            0 -1 47 1.2545859441161156e-02</internalNodes>
          <leafValues>
            9.4605737924575806e-01 -9.1578352451324463e-01</leafValues></_></weakClassifiers></_>
    <!-- stage 3 -->
    <_>
      <maxWeakCount>5</maxWeakCount>
      <stageThreshold>-2.2875411808490753e-01</stageThreshold>
      <weakClassifiers>
        <_>
          <internalNodes>
            0 -1 0 4.5918393880128860e-03</internalNodes>
          <leafValues>
            4.1818180680274963e-01 -7.4257427453994751e-01</leafValues></_>
        <_>
          <internalNodes>
            0 -1 39 1.4177689328789711e-02</internalNodes>
          <leafValues>
            3.3969143033027649e-01 -8.8031613826751709e-01</leafValues></_>
        <_>
          <internalNodes>
            0 -1 29 1.1523822322487831e-02</internalNodes>
          <leafValues>
            -8.7887471914291382e-01 4.7202020883560181e-01</leafValues></_>
        <_>
          <internalNodes>
            0 -1 20 1.7472077161073685e-02</internalNodes>
          <leafValues>
            4.6394598484039307e-01 -8.6796915531158447e-01</leafValues></_>
        <_>
          <internalNodes>
            0 -1 31 5.4218703880906105e-03</internalNodes>
          <leafValues>
            6.9647997617721558e-01 -5.7169860601425171e-01</leafValues></_></weakClassifiers></_>
    <!-- stage 4 -->
    <_>
      <maxWeakCount>5</maxWeakCount>
      <stageThreshold>-1.4416310191154480e-01</stageThreshold>
      <weakClassifiers>
        <_>
          <internalNodes>
            0 -1 22 1.9471015781164169e-02</internalNodes>
          <leafValues>
            -6.7857140302658081e-01 5.4545456171035767e-01</leafValues></_>
        <_>
          <internalNodes>
            0 -1 28 4.4746071100234985e-02</internalNodes>
          <leafValues>
            3.5646903514862061e-01 -1.</leafValues></_>
        <_>
          <internalNodes>
            0 -1 56 6.8119600415229797e-02</internalNodes>
          <leafValues>
            -4.4163465499877930e-01 8.6748975515365601e-01</leafValues></_>
        <_>
          <internalNodes>
            0 -1 36 2.3944981396198273e-02</internalNodes>
          <leafValues>
            3.4436658024787903e-01 -1.</leafValues></_>
        <_>
          <internalNodes>
            0 -1 51 8.9911809191107750e-03</internalNodes>
          <leafValues>
            -9.4881862401962280e-01 3.1514129042625427e-01</leafValues></_></weakClassifiers></_>
    <!-- stage 5 -->
    <_>
      <maxWeakCount>7</maxWeakCount>
      <stageThreshold>-8.0893063545227051e-01</stageThreshold>
      <weakClassifiers>
        <_>
          <internalNodes>
            0 -1 21 1.4378502033650875e-02</internalNodes>
          <leafValues>
            -8.5507243871688843e-01 8.0459773540496826e-02</leafValues></_>
        <_>
          <internalNodes>
            0 -1 45 1.3477639295160770e-02</internalNodes>
          <leafValues>
            3.8669130206108093e-01 -5.8153814077377319e-01</leafValues></_>
        <_>
          <internalNodes>
            0 -1 33 5.9172503650188446e-02</internalNodes>
          <leafValues>
            2.7330085635185242e-01 -9.5352184772491455e-01</leafValues></_>
        <_>
          <internalNodes>
            0 -1 19 1.5972580760717392e-02</internalNodes>
          <leafValues>
            4.6930664777755737e-01 -7.1966981887817383e-01</leafValues></_>
        <_>
          <internalNodes>
            0 -1 43 3.3731281757354736e-02</internalNodes>
          <leafValues>
            1.7831313610076904e-01 -1.</leafValues></_>
        <_>
          <internalNodes>
            0 -1 41 1.1154938489198685e-02</internalNodes>
          <leafValues>
            -7.0959770679473877e-01 2.8237825632095337e-01</leafValues></_>
        <_>
          <internalNodes>
            0 -1 54 2.6871809735894203e-02</internalNodes>
          <leafValues>
            4.4199147820472717e-01 -5.5187243223190308e-01</leafValues></_></weakClassifiers></_>
    <!-- stage 6 -->
    <_>
      <maxWeakCount>7</maxWeakCount>
      <stageThreshold>-8.3875931799411774e-02</stageThreshold>
      <weakClassifiers>
        <_>
          <internalNodes>
            0 -1 49 5.1994770765304565e-03</internalNodes>
          <leafValues>
            -9.1666668653488159e-01 1.6666667163372040e-01</leafValues></_>
        <_>
          <internalNodes>
            0 -1 42 9.5431301742792130e-03</internalNodes>
          <leafValues>
            -6.9389373064041138e-01 3.8993310928344727e-01</leafValues></_>
        <_>
          <internalNodes>
            0 -1 8 2.1365940570831299e-02</internalNodes>
          <leafValues>
            -5.1140290498733521e-01 6.9463074207305908e-01</leafValues></_>
        <_>
          <internalNodes>
            0 -1 27 3.3822734840214252e-03</internalNodes>
          <leafValues>
            -6.8292069435119629e-01 3.8565832376480103e-01</leafValues></_>
        <_>
          <internalNodes>
            0 -1 46 3.5755126737058163e-03</internalNodes>
          <leafValues>
            7.4280583858489990e-01 -3.8743153214454651e-01</leafValues></_>
        <_>
          <internalNodes>
            0 -1 16 1.7600070685148239e-02</internalNodes>
          <leafValues>
            -6.9030928611755371e-01 3.9100652933120728e-01</leafValues></_>
        <_>
          <internalNodes>
            0 -1 32 8.5002267733216286e-03</internalNodes>
          <leafValues>
            5.9491300582885742e-01 -5.1830613613128662e-01</leafValues></_></weakClassifiers></_>
    <!-- stage 7 -->
    <_>
      <maxWeakCount>9</maxWeakCount>
      <stageThreshold>-3.4221762418746948e-01</stageThreshold>
      <weakClassifiers>
        <_>
          <internalNodes>
            0 -1 55 2.6861124206334352e-03</internalNodes>
          <leafValues>
            3.4883719682693481e-01 -5.9292036294937134e-01</leafValues></_>
        <_>
          <internalNodes>
            0 -1 37 4.4948734343051910e-02</internalNodes>
          <leafValues>
            2.3169501125812531e-01 -9.5592463016510010e-01</leafValues></_>
        <_>
          <internalNodes>
            0 -1 17 1.2031338363885880e-01</internalNodes>
          <leafValues>
            -3.2719951868057251e-01 8.7356060743331909e-01</leafValues></_>
        <_>
          <internalNodes>
            0 -1 2 1.0503683239221573e-02</internalNodes>
          <leafValues>
            3.7145301699638367e-01 -7.9860848188400269e-01</leafValues></_>
        <_>
          <internalNodes>
            0 -1 25 2.7908397838473320e-02</internalNodes>
          <leafValues>
            -4.3515768647193909e-01 5.4822796583175659e-01</leafValues></_>
        <_>
          <internalNodes>
            0 -1 18 1.2981150299310684e-02</internalNodes>
          <leafValues>
            -7.7265983819961548e-01 3.4270605444908142e-01</leafValues></_>
        <_>
          <internalNodes>
            0 -1 13 3.0407629907131195e-02</internalNodes>
          <leafValues>
            4.2558136582374573e-01 -5.5447828769683838e-01</leafValues></_>
        <_>
          <internalNodes>
            0 -1 5 1.3922818005084991e-02</internalNodes>
          <leafValues>
            3.4392425417900085e-01 -7.4348789453506470e-01</leafValues></_>
        <_>
          <internalNodes>
            0 -1 12 7.2664134204387665e-03</internalNodes>
          <leafValues>
            4.2078056931495667e-01 -5.9827327728271484e-01</leafValues></_></weakClassifiers></_>
    <!-- stage 8 -->
    <_>
      <maxWeakCount>9</maxWeakCount>
      <stageThreshold>-1.4088836312294006e-01</stageThreshold>
      <weakClassifiers>
        <_>
          <internalNodes>
            0 -1 11 6.4892293885350227e-03</internalNodes>
          <leafValues>
            2.0634920895099640e-01 -6.9892472028732300e-01</leafValues></_>
        <_>
          <internalNodes>
            0 -1 34 4.1336356662213802e-03</internalNodes>
          <leafValues>
            4.8380383849143982e-01 -5.2939850091934204e-01</leafValues></_>
        <_>
          <internalNodes>
            0 -1 40 2.5373425334692001e-02</internalNodes>
          <leafValues>
            2.1094480156898499e-01 -1.</leafValues></_>
        <_>
          <internalNodes>
            0 -1 44 8.6315255612134933e-03</internalNodes>
          <leafValues>
            5.7239085435867310e-01 -4.0698868036270142e-01</leafValues></_>
        <_>
          <internalNodes>
            0 -1 35 1.2017480283975601e-01</internalNodes>
          <leafValues>
            -2.7900949120521545e-01 1.</leafValues></_>
        <_>
          <internalNodes>
            0 -1 53 3.5103261470794678e-02</internalNodes>
          <leafValues>
            3.0831044912338257e-01 -1.</leafValues></_>
        <_>
          <internalNodes>
            0 -1 4 3.3763226121664047e-02</internalNodes>
          <leafValues>
            2.0322291553020477e-01 -7.5717157125473022e-01</leafValues></_>
        <_>
          <internalNodes>
            0 -1 7 5.0635829567909241e-02</internalNodes>
          <leafValues>
            -3.0735802650451660e-01 7.5703310966491699e-01</leafValues></_>
        <_>
          <internalNodes>
            0 -1 23 1.1842419393360615e-02</internalNodes>
          <leafValues>
            3.7893339991569519e-01 -5.9313976764678955e-01</leafValues></_></weakClassifiers></_>
    <!-- stage 9 -->
    <_>
      <maxWeakCount>8</maxWeakCount>
      <stageThreshold>4.4879588484764099e-01</stageThreshold>
      <weakClassifiers>
        <_>
          <internalNodes>
            0 -1 15 4.3050527572631836e-02</internalNodes>
          <leafValues>
            5.4098361730575562e-01 -6.1538463830947876e-01</leafValues></_>
        <_>
          <internalNodes>
            0 -1 52 1.0007498785853386e-02</internalNodes>
          <leafValues>
            -8.1446665525436401e-01 3.1120896339416504e-01</leafValues></_>
        <_>
          <internalNodes>
            0 -1 26 3.7376817315816879e-02</internalNodes>
          <leafValues>
            -2.4074311554431915e-01 1.</leafValues></_>
        <_>
          <internalNodes>
            0 -1 30 1.1855419725179672e-02</internalNodes>
          <leafValues>
            3.7816447019577026e-01 -6.8301123380661011e-01</leafValues></_>
        <_>
          <internalNodes>
            0 -1 14 4.8750802874565125e-02</internalNodes>
          <leafValues>
            3.4149092435836792e-01 -7.9014080762863159e-01</leafValues></_>
        <_>
          <internalNodes>
            0 -1 9 6.0207773931324482e-03</internalNodes>
          <leafValues>
            -9.4338226318359375e-01 1.9909495115280151e-01</leafValues></_>
        <_>
          <internalNodes>
            0 -1 3 1.0254125110805035e-02</internalNodes>
          <leafValues>
            5.0241714715957642e-01 -6.6319090127944946e-01</leafValues></_>
        <_>
          <internalNodes>
            0 -1 38 4.6786963939666748e-03</internalNodes>
          <leafValues>
            7.4683535099029541e-01 -4.1821300983428955e-01</leafValues></_></weakClassifiers></_></stages>
  <features>
    <_>
      <rect>
        0 0 8 8 5</rect></_>
    <_>
      <rect>
        0 0 8 8 6</rect></_>
    <_>
      <rect>
        0 0 8 8 16</rect></_>
    <_>
      <rect>
        0 0 8 8 22</rect></_>
    <_>
      <rect>
        0 0 8 8 31</rect></_>
    <_>
      <rect>
        0 4 8 8 22</rect></_>
    <_>
      <rect>
        0 8 8 8 4</rect></_>
    <_>
      <rect>
        0 8 8 8 8</rect></_>
    <_>
      <rect>
        0 12 8 8 26</rect></_>
    <_>
      <rect>
        0 16 8 8 13</rect></_>
    <_>
      <rect>
        0 16 8 8 19</rect></_>
    <_>
      <rect>
        0 16 8 8 27</rect></_>
    <_>
      <rect>
        0 16 8 8 34</rect></_>
    <_>
      <rect>
        4 0 8 8 28</rect></_>
    <_>
      <rect>
        4 0 8 8 30</rect></_>
    <_>
      <rect>
        4 4 8 8 28</rect></_>
    <_>
      <rect>
        4 8 8 8 12</rect></_>
    <_>
      <rect>
        4 12 8 8 6</rect></_>
    <_>
      <rect>
        4 12 8 8 12</rect></_>
    <_>
      <rect>
        4 12 8 8 15</rect></_>
    <_>
      <rect>
        4 16 8 8 18</rect></_>
    <_>
      <rect>
        8 8 8 8 3</rect></_>
    <_>
      <rect>
        8 16 8 8 30</rect></_>
    <_>
      <rect>
        8 16 8 8 35</rect></_>
    <_>
      <rect>
        12 0 8 8 8</rect></_>
    <_>
      <rect>
        12 0 8 8 13</rect></_>
    <_>
      <rect>
        12 4 8 8 13</rect></_>
    <_>
      <rect>
        12 8 8 8 7</rect></_>
    <_>
      <rect>
        12 12 8 8 4</rect></_>
    <_>
      <rect>
        12 16 8 8 3</rect></_>
    <_>
      <rect>
        16 0 8 8 9</rect></_>
    <_>
      <rect>
        16 0 8 8 15</rect></_>
    <_>
      <rect>
        16 0 8 8 31</rect></_>
    <_>
      <rect>
        16 4 8 8 20</rect></_>
    <_>
      <rect>
        16 4 8 8 32</rect></_>
    <_>
      <rect>
        16 8 8 8 33</rect></_>
    <_>
      <rect>
        16 16 8 8 5</rect></_>
    <_>
      <rect>
        16 16 8 8 8</rect></_>
    <_>
      <rect>
        16 16 8 8 19</rect></_>
    <_>
      <rect>
        16 16 8 8 25</rect></_>
    <_>
      <rect>
        16 16 8 8 33</rect></_>
    <_>
      <rect>
        4 0 8 16 1</rect></_>
    <_>
      <rect>
        4 0 8 16 24</rect></_>
    <_>
      <rect>
        8 0 8 16 9</rect></_>
    <_>
      <rect>
        12 0 8 16 6</rect></_>
    <_>
      <rect>
        16 0 8 16 8</rect></_>
    <_>
      <rect>
        16 0 8 16 11</rect></_>
    <_>
      <rect>
        16 0 8 16 32</rect></_>
    <_>
      <rect>
        0 0 16 8 31</rect></_>
    <_>
      <rect>
        0 0 16 8 34</rect></_>
    <_>
      <rect>
        0 4 16 8 31</rect></_>
    <_>
      <rect>
        0 8 16 8 1</rect></_>
    <_>
      <rect>
        0 8 16 8 28</rect></_>
    <_>
      <rect>
        0 8 16 8 31</rect></_>
    <_>
      <rect>
        0 12 16 8 2</rect></_>
    <_>
      <rect>
        0 16 16 8 33</rect></_>
    <_>
      <rect>
        0 0 16 16 28</rect></_></features></cascade>
</opencv_storage>
