<?xml version="1.0"?>
<opencv_storage>
<!-- Created using Computer Vision System Toolbox(tm) for MATLAB(R) -->
<!-- Version 9.3.0.713579 (R2017b) -->
<!-- Compatible with OpenCV 3.1 -->
<cascade>
  <stageType>BOOST</stageType>
  <featureType>HOG</featureType>
  <height>32</height>
  <width>34</width>
  <stageParams>
    <boostType>GAB</boostType>
    <minHitRate>9.9500000476837158e-01</minHitRate>
    <maxFalseAlarm>1.0000000149011612e-01</maxFalseAlarm>
    <weightTrimRate>9.4999999999999996e-01</weightTrimRate>
    <maxDepth>1</maxDepth>
    <maxWeakCount>100</maxWeakCount></stageParams>
  <featureParams>
    <maxCatCount>0</maxCatCount>
    <featSize>36</featSize></featureParams>
  <stageNum>10</stageNum>
  <stages>
    <!-- stage 0 -->
    <_>
      <maxWeakCount>3</maxWeakCount>
      <stageThreshold>2.2667860984802246e-01</stageThreshold>
      <weakClassifiers>
        <_>
          <internalNodes>
            0 -1 49 2.9627248644828796e-02</internalNodes>
          <leafValues>
            6.2068963050842285e-01 -8.9795917272567749e-01</leafValues></_>
        <_>
          <internalNodes>
            0 -1 4 2.2735746577382088e-02</internalNodes>
          <leafValues>
            6.7128074169158936e-01 -8.8234108686447144e-01</leafValues></_>
        <_>
          <internalNodes>
            0 -1 42 1.8382616341114044e-02</internalNodes>
          <leafValues>
            4.8833000659942627e-01 -8.3049416542053223e-01</leafValues></_></weakClassifiers></_>
    <!-- stage 1 -->
    <_>
      <maxWeakCount>7</maxWeakCount>
      <stageThreshold>-2.9244711995124817e-01</stageThreshold>
      <weakClassifiers>
        <_>
          <internalNodes>
            0 -1 1 1.0063431225717068e-02</internalNodes>
          <leafValues>
            5.3571426868438721e-01 -8.1999999284744263e-01</leafValues></_>
        <_>
          <internalNodes>
            0 -1 19 1.3954481109976768e-02</internalNodes>
          <leafValues>
            3.6864581704139709e-01 -8.5131227970123291e-01</leafValues></_>
        <_>
          <internalNodes>
            0 -1 52 2.9315430670976639e-02</internalNodes>
          <leafValues>
            3.5961920022964478e-01 -7.5310790538787842e-01</leafValues></_>
        <_>
          <internalNodes>
            0 -1 38 7.1862642653286457e-03</internalNodes>
          <leafValues>
            9.1793429851531982e-01 -4.3863409757614136e-01</leafValues></_>
        <_>
          <internalNodes>
            0 -1 48 6.5315738320350647e-03</internalNodes>
          <leafValues>
            -1. 4.7872495651245117e-01</leafValues></_>
        <_>
          <internalNodes>
            0 -1 18 1.4650986529886723e-02</internalNodes>
          <leafValues>
            3.8199001550674438e-01 -8.8713270425796509e-01</leafValues></_>
        <_>
          <internalNodes>
            0 -1 8 9.9590588361024857e-03</internalNodes>
          <leafValues>
            5.9716510772705078e-01 -5.2250641584396362e-01</leafValues></_></weakClassifiers></_>
    <!-- stage 2 -->
    <_>
      <maxWeakCount>5</maxWeakCount>
      <stageThreshold>-3.2063221931457520e-01</stageThreshold>
      <weakClassifiers>
        <_>
          <internalNodes>
            0 -1 37 1.8516339361667633e-02</internalNodes>
          <leafValues>
            1.9047619402408600e-01 -9.4444441795349121e-01</leafValues></_>
        <_>
          <internalNodes>
            0 -1 58 2.0691905170679092e-02</internalNodes>
          <leafValues>
            -5.8988064527511597e-01 6.0904902219772339e-01</leafValues></_>
        <_>
          <internalNodes>
            0 -1 57 1.9755616784095764e-02</internalNodes>
          <leafValues>
            4.1583216190338135e-01 -8.5986936092376709e-01</leafValues></_>
        <_>
          <internalNodes>
            0 -1 2 1.3862259685993195e-02</internalNodes>
          <leafValues>
            4.9254566431045532e-01 -7.4621134996414185e-01</leafValues></_>
        <_>
          <internalNodes>
            0 -1 55 1.1386341415345669e-02</internalNodes>
          <leafValues>
            -9.3852508068084717e-01 4.0915137529373169e-01</leafValues></_></weakClassifiers></_>
    <!-- stage 3 -->
    <_>
      <maxWeakCount>7</maxWeakCount>
      <stageThreshold>9.9877923727035522e-02</stageThreshold>
      <weakClassifiers>
        <_>
          <internalNodes>
            0 -1 17 4.3583929538726807e-02</internalNodes>
          <leafValues>
            -5.4198473691940308e-01 7.5999999046325684e-01</leafValues></_>
        <_>
          <internalNodes>
            0 -1 24 2.9191618785262108e-02</internalNodes>
          <leafValues>
            -5.2254915237426758e-01 6.3668298721313477e-01</leafValues></_>
        <_>
          <internalNodes>
            0 -1 26 1.6197688877582550e-02</internalNodes>
          <leafValues>
            3.1283959746360779e-01 -9.3919569253921509e-01</leafValues></_>
        <_>
          <internalNodes>
            0 -1 22 4.2400263249874115e-02</internalNodes>
          <leafValues>
            -3.6323085427284241e-01 7.5474762916564941e-01</leafValues></_>
        <_>
          <internalNodes>
            0 -1 35 9.3190651386976242e-03</internalNodes>
          <leafValues>
            -9.1096496582031250e-01 3.7041676044464111e-01</leafValues></_>
        <_>
          <internalNodes>
            0 -1 23 2.7231041342020035e-02</internalNodes>
          <leafValues>
            -4.4964236021041870e-01 6.8036866188049316e-01</leafValues></_>
        <_>
          <internalNodes>
            0 -1 41 2.1591957658529282e-02</internalNodes>
          <leafValues>
            2.9819974303245544e-01 -9.8315262794494629e-01</leafValues></_></weakClassifiers></_>
    <!-- stage 4 -->
    <_>
      <maxWeakCount>8</maxWeakCount>
      <stageThreshold>-1.9719417393207550e-01</stageThreshold>
      <weakClassifiers>
        <_>
          <internalNodes>
            0 -1 59 8.5427034646272659e-03</internalNodes>
          <leafValues>
            -8.7341773509979248e-01 2.2077922523021698e-01</leafValues></_>
        <_>
          <internalNodes>
            0 -1 11 1.1402845382690430e-02</internalNodes>
          <leafValues>
            -8.4402883052825928e-01 2.0915004611015320e-01</leafValues></_>
        <_>
          <internalNodes>
            0 -1 31 1.4658574014902115e-02</internalNodes>
          <leafValues>
            -7.0558434724807739e-01 3.2896068692207336e-01</leafValues></_>
        <_>
          <internalNodes>
            0 -1 32 1.7064468935132027e-02</internalNodes>
          <leafValues>
            -5.5933415889739990e-01 5.0217318534851074e-01</leafValues></_>
        <_>
          <internalNodes>
            0 -1 47 3.1706668436527252e-02</internalNodes>
          <leafValues>
            2.5185319781303406e-01 -9.6282070875167847e-01</leafValues></_>
        <_>
          <internalNodes>
            0 -1 60 2.2215995937585831e-02</internalNodes>
          <leafValues>
            -5.8612167835235596e-01 4.8744115233421326e-01</leafValues></_>
        <_>
          <internalNodes>
            0 -1 6 3.7124410271644592e-02</internalNodes>
          <leafValues>
            -3.8020679354667664e-01 7.8462636470794678e-01</leafValues></_>
        <_>
          <internalNodes>
            0 -1 56 3.4303449094295502e-02</internalNodes>
          <leafValues>
            3.3835938572883606e-01 -7.8152012825012207e-01</leafValues></_></weakClassifiers></_>
    <!-- stage 5 -->
    <_>
      <maxWeakCount>9</maxWeakCount>
      <stageThreshold>-5.6996142864227295e-01</stageThreshold>
      <weakClassifiers>
        <_>
          <internalNodes>
            0 -1 61 3.6245975643396378e-02</internalNodes>
          <leafValues>
            -5.2459013462066650e-01 3.5294118523597717e-01</leafValues></_>
        <_>
          <internalNodes>
            0 -1 39 2.6928335428237915e-02</internalNodes>
          <leafValues>
            2.1712265908718109e-01 -6.4620292186737061e-01</leafValues></_>
        <_>
          <internalNodes>
            0 -1 54 7.4214674532413483e-03</internalNodes>
          <leafValues>
            -8.9311897754669189e-01 1.9492921233177185e-01</leafValues></_>
        <_>
          <internalNodes>
            0 -1 14 2.7434477582573891e-02</internalNodes>
          <leafValues>
            -3.7575811147689819e-01 4.5037505030632019e-01</leafValues></_>
        <_>
          <internalNodes>
            0 -1 15 1.0348855517804623e-02</internalNodes>
          <leafValues>
            6.3621097803115845e-01 -3.9412879943847656e-01</leafValues></_>
        <_>
          <internalNodes>
            0 -1 50 1.7830410972237587e-02</internalNodes>
          <leafValues>
            -5.2467948198318481e-01 3.6292353272438049e-01</leafValues></_>
        <_>
          <internalNodes>
            0 -1 21 8.4677830338478088e-02</internalNodes>
          <leafValues>
            -1.9771452248096466e-01 8.3374410867691040e-01</leafValues></_>
        <_>
          <internalNodes>
            0 -1 36 1.1418225243687630e-02</internalNodes>
          <leafValues>
            -8.3212941884994507e-01 2.3317459225654602e-01</leafValues></_>
        <_>
          <internalNodes>
            0 -1 9 1.8178489059209824e-02</internalNodes>
          <leafValues>
            -2.2865656018257141e-01 9.4987738132476807e-01</leafValues></_></weakClassifiers></_>
    <!-- stage 6 -->
    <_>
      <maxWeakCount>9</maxWeakCount>
      <stageThreshold>-1.5900294482707977e-01</stageThreshold>
      <weakClassifiers>
        <_>
          <internalNodes>
            0 -1 40 4.2400564998388290e-02</internalNodes>
          <leafValues>
            -5.2755904197692871e-01 5.1724135875701904e-01</leafValues></_>
        <_>
          <internalNodes>
            0 -1 44 5.9121053665876389e-02</internalNodes>
          <leafValues>
            -3.6820927262306213e-01 5.3766179084777832e-01</leafValues></_>
        <_>
          <internalNodes>
            0 -1 51 1.4234844595193863e-02</internalNodes>
          <leafValues>
            -7.4752873182296753e-01 2.6755571365356445e-01</leafValues></_>
        <_>
          <internalNodes>
            0 -1 12 4.9315363168716431e-02</internalNodes>
          <leafValues>
            1.7348858714103699e-01 -9.3470036983489990e-01</leafValues></_>
        <_>
          <internalNodes>
            0 -1 29 4.6084588393568993e-03</internalNodes>
          <leafValues>
            -1. 1.6280339658260345e-01</leafValues></_>
        <_>
          <internalNodes>
            0 -1 43 7.6274950988590717e-03</internalNodes>
          <leafValues>
            6.0618597269058228e-01 -3.0772721767425537e-01</leafValues></_>
        <_>
          <internalNodes>
            0 -1 0 5.0429776310920715e-03</internalNodes>
          <leafValues>
            -7.4363046884536743e-01 2.3192262649536133e-01</leafValues></_>
        <_>
          <internalNodes>
            0 -1 28 6.7391339689493179e-03</internalNodes>
          <leafValues>
            -9.0273094177246094e-01 1.5660730004310608e-01</leafValues></_>
        <_>
          <internalNodes>
            0 -1 45 1.7638053745031357e-02</internalNodes>
          <leafValues>
            1.9754000008106232e-01 -7.4405878782272339e-01</leafValues></_></weakClassifiers></_>
    <!-- stage 7 -->
    <_>
      <maxWeakCount>8</maxWeakCount>
      <stageThreshold>-7.9224584624171257e-03</stageThreshold>
      <weakClassifiers>
        <_>
          <internalNodes>
            0 -1 20 2.7973039075732231e-02</internalNodes>
          <leafValues>
            -3.3333334326744080e-01 5.8974361419677734e-01</leafValues></_>
        <_>
          <internalNodes>
            0 -1 34 2.1710282191634178e-02</internalNodes>
          <leafValues>
            4.9052625894546509e-01 -4.9726215004920959e-01</leafValues></_>
        <_>
          <internalNodes>
            0 -1 13 2.1690379828214645e-02</internalNodes>
          <leafValues>
            -5.4444700479507446e-01 4.3315631151199341e-01</leafValues></_>
        <_>
          <internalNodes>
            0 -1 3 2.2091964259743690e-02</internalNodes>
          <leafValues>
            -7.5889956951141357e-01 3.4761160612106323e-01</leafValues></_>
        <_>
          <internalNodes>
            0 -1 30 4.1139096021652222e-02</internalNodes>
          <leafValues>
            -2.7070873975753784e-01 8.9879870414733887e-01</leafValues></_>
        <_>
          <internalNodes>
            0 -1 27 3.9383821189403534e-02</internalNodes>
          <leafValues>
            -2.8059569001197815e-01 9.0419787168502808e-01</leafValues></_>
        <_>
          <internalNodes>
            0 -1 46 2.0889094099402428e-02</internalNodes>
          <leafValues>
            -4.9422600865364075e-01 5.1218181848526001e-01</leafValues></_>
        <_>
          <internalNodes>
            0 -1 33 2.0234672352671623e-02</internalNodes>
          <leafValues>
            -6.4228659868240356e-01 2.8308135271072388e-01</leafValues></_></weakClassifiers></_>
    <!-- stage 8 -->
    <_>
      <maxWeakCount>3</maxWeakCount>
      <stageThreshold>9.5928579568862915e-01</stageThreshold>
      <weakClassifiers>
        <_>
          <internalNodes>
            0 -1 10 5.5579352192580700e-04</internalNodes>
          <leafValues>
            -1. 8.2456141710281372e-01</leafValues></_>
        <_>
          <internalNodes>
            0 -1 25 1.2847681064158678e-03</internalNodes>
          <leafValues>
            -8.6527562141418457e-01 8.7419098615646362e-01</leafValues></_>
        <_>
          <internalNodes>
            0 -1 16 1.7995364964008331e-02</internalNodes>
          <leafValues>
            1. -4.7991394996643066e-01</leafValues></_></weakClassifiers></_>
    <!-- stage 9 -->
    <_>
      <maxWeakCount>6</maxWeakCount>
      <stageThreshold>-1.6854572296142578e-01</stageThreshold>
      <weakClassifiers>
        <_>
          <internalNodes>
            0 -1 1 1.2305941432714462e-02</internalNodes>
          <leafValues>
            8.3333331346511841e-01 -2.0000000298023224e-01</leafValues></_>
        <_>
          <internalNodes>
            0 -1 5 1.2959671206772327e-02</internalNodes>
          <leafValues>
            -3.1575259566307068e-01 8.4758466482162476e-01</leafValues></_>
        <_>
          <internalNodes>
            0 -1 7 2.3899186402559280e-02</internalNodes>
          <leafValues>
            -2.8951653838157654e-01 1.</leafValues></_>
        <_>
          <internalNodes>
            0 -1 10 1.3787031173706055e-02</internalNodes>
          <leafValues>
            5.6243073940277100e-01 -7.1451359987258911e-01</leafValues></_>
        <_>
          <internalNodes>
            0 -1 53 2.4209249764680862e-02</internalNodes>
          <leafValues>
            6.2932491302490234e-01 -6.0706049203872681e-01</leafValues></_>
        <_>
          <internalNodes>
            0 -1 24 3.1826153397560120e-02</internalNodes>
          <leafValues>
            -4.4142514467239380e-01 9.5603078603744507e-01</leafValues></_></weakClassifiers></_></stages>
  <features>
    <_>
      <rect>
        0 0 8 8 4</rect></_>
    <_>
      <rect>
        0 0 8 8 6</rect></_>
    <_>
      <rect>
        0 4 8 8 5</rect></_>
    <_>
      <rect>
        0 4 8 8 11</rect></_>
    <_>
      <rect>
        0 8 8 8 4</rect></_>
    <_>
      <rect>
        0 8 8 8 14</rect></_>
    <_>
      <rect>
        0 12 8 8 6</rect></_>
    <_>
      <rect>
        0 16 8 8 12</rect></_>
    <_>
      <rect>
        0 16 8 8 23</rect></_>
    <_>
      <rect>
        0 16 8 8 26</rect></_>
    <_>
      <rect>
        4 0 8 8 7</rect></_>
    <_>
      <rect>
        4 4 8 8 1</rect></_>
    <_>
      <rect>
        4 4 8 8 33</rect></_>
    <_>
      <rect>
        4 8 8 8 13</rect></_>
    <_>
      <rect>
        4 8 8 8 32</rect></_>
    <_>
      <rect>
        4 12 8 8 15</rect></_>
    <_>
      <rect>
        4 12 8 8 17</rect></_>
    <_>
      <rect>
        4 12 8 8 24</rect></_>
    <_>
      <rect>
        4 16 8 8 34</rect></_>
    <_>
      <rect>
        8 0 8 8 7</rect></_>
    <_>
      <rect>
        8 8 8 8 14</rect></_>
    <_>
      <rect>
        8 8 8 8 15</rect></_>
    <_>
      <rect>
        8 12 8 8 23</rect></_>
    <_>
      <rect>
        8 16 8 8 21</rect></_>
    <_>
      <rect>
        8 16 8 8 30</rect></_>
    <_>
      <rect>
        8 16 8 8 34</rect></_>
    <_>
      <rect>
        12 0 8 8 8</rect></_>
    <_>
      <rect>
        12 0 8 8 12</rect></_>
    <_>
      <rect>
        12 0 8 8 18</rect></_>
    <_>
      <rect>
        12 0 8 8 29</rect></_>
    <_>
      <rect>
        12 4 8 8 14</rect></_>
    <_>
      <rect>
        12 4 8 8 15</rect></_>
    <_>
      <rect>
        12 8 8 8 3</rect></_>
    <_>
      <rect>
        12 8 8 8 21</rect></_>
    <_>
      <rect>
        12 12 8 8 17</rect></_>
    <_>
      <rect>
        12 12 8 8 29</rect></_>
    <_>
      <rect>
        12 16 8 8 11</rect></_>
    <_>
      <rect>
        16 0 8 8 8</rect></_>
    <_>
      <rect>
        16 0 8 8 14</rect></_>
    <_>
      <rect>
        16 4 8 8 26</rect></_>
    <_>
      <rect>
        16 12 8 8 17</rect></_>
    <_>
      <rect>
        16 16 8 8 26</rect></_>
    <_>
      <rect>
        0 0 8 16 17</rect></_>
    <_>
      <rect>
        0 0 8 16 19</rect></_>
    <_>
      <rect>
        4 0 8 16 1</rect></_>
    <_>
      <rect>
        8 0 8 16 7</rect></_>
    <_>
      <rect>
        16 0 8 16 15</rect></_>
    <_>
      <rect>
        0 0 16 8 30</rect></_>
    <_>
      <rect>
        0 0 16 8 35</rect></_>
    <_>
      <rect>
        0 4 16 8 31</rect></_>
    <_>
      <rect>
        0 8 16 8 13</rect></_>
    <_>
      <rect>
        0 8 16 8 27</rect></_>
    <_>
      <rect>
        0 12 16 8 4</rect></_>
    <_>
      <rect>
        0 12 16 8 16</rect></_>
    <_>
      <rect>
        0 16 16 8 0</rect></_>
    <_>
      <rect>
        0 16 16 8 10</rect></_>
    <_>
      <rect>
        0 16 16 8 13</rect></_>
    <_>
      <rect>
        0 16 16 8 18</rect></_>
    <_>
      <rect>
        0 16 16 8 30</rect></_>
    <_>
      <rect>
        0 0 16 16 8</rect></_>
    <_>
      <rect>
        0 0 16 16 13</rect></_>
    <_>
      <rect>
        0 0 16 16 31</rect></_></features></cascade>
</opencv_storage>
